svm_type c_svc
kernel_type polynomial
degree 1
gamma 0.33333299999999999
coef0 1
nr_class 2
total_sv 2
rho 0
label 1 -1
nr_sv 1 1
SV
0.50000050000049945 1:1 2:1 3:1 
-0.50000050000049945 1:-1 2:-1 3:-1 
